digraph Tree {
node [shape=box, style="filled, rounded", color="black", fontname=helvetica] ;
edge [fontname=helvetica] ;
0 [label="X[12] <= 0.5\ngini = 0.193\nsamples = 54388\nvalue = [5892, 48496]", fillcolor="#51a9e8"] ;
1 [label="X[73] <= 0.5\ngini = 0.165\nsamples = 52877\nvalue = [4783, 48094]", fillcolor="#4da7e8"] ;
0 -> 1 [labeldistance=2.5, labelangle=45, headlabel="True"] ;
2 [label="X[41] <= 0.5\ngini = 0.151\nsamples = 52057\nvalue = [4281, 47776]", fillcolor="#4ba6e7"] ;
1 -> 2 ;
3 [label="X[85] <= 0.5\ngini = 0.114\nsamples = 40348\nvalue = [2457, 37891]", fillcolor="#46a3e7"] ;
2 -> 3 ;
4 [label="X[10] <= 0.5\ngini = 0.111\nsamples = 39954\nvalue = [2358, 37596]", fillcolor="#45a3e7"] ;
3 -> 4 ;
5 [label="X[39] <= 0.5\ngini = 0.13\nsamples = 27257\nvalue = [1902, 25355]", fillcolor="#48a4e7"] ;
4 -> 5 ;
6 [label="X[38] <= 0.5\ngini = 0.172\nsamples = 10308\nvalue = [977, 9331]", fillcolor="#4ea7e8"] ;
5 -> 6 ;
7 [label="X[40] <= 0.5\ngini = 0.213\nsamples = 6143\nvalue = [745, 5398]", fillcolor="#54abe9"] ;
6 -> 7 ;
8 [label="X[30] <= 0.5\ngini = 0.458\nsamples = 1082\nvalue = [385, 697]", fillcolor="#a6d3f3"] ;
7 -> 8 ;
9 [label="X[44] <= 0.5\ngini = 0.475\nsamples = 789\nvalue = [306, 483]", fillcolor="#b6dbf5"] ;
8 -> 9 ;
10 [label="gini = 0.478\nsamples = 761\nvalue = [301, 460]", fillcolor="#bbddf6"] ;
9 -> 10 ;
11 [label="gini = 0.293\nsamples = 28\nvalue = [5, 23]", fillcolor="#64b2eb"] ;
9 -> 11 ;
12 [label="X[54] <= 0.5\ngini = 0.394\nsamples = 293\nvalue = [79, 214]", fillcolor="#82c1ef"] ;
8 -> 12 ;
13 [label="gini = 0.378\nsamples = 281\nvalue = [71, 210]", fillcolor="#7cbeee"] ;
12 -> 13 ;
14 [label="gini = 0.444\nsamples = 12\nvalue = [8, 4]", fillcolor="#f2c09c"] ;
12 -> 14 ;
15 [label="X[43] <= 0.5\ngini = 0.132\nsamples = 5061\nvalue = [360, 4701]", fillcolor="#48a5e7"] ;
7 -> 15 ;
16 [label="X[0] <= 44.5\ngini = 0.109\nsamples = 4669\nvalue = [270, 4399]", fillcolor="#45a3e7"] ;
15 -> 16 ;
17 [label="gini = 0.098\nsamples = 4334\nvalue = [224, 4110]", fillcolor="#44a2e6"] ;
16 -> 17 ;
18 [label="gini = 0.237\nsamples = 335\nvalue = [46, 289]", fillcolor="#59ade9"] ;
16 -> 18 ;
19 [label="X[47] <= 0.5\ngini = 0.354\nsamples = 392\nvalue = [90, 302]", fillcolor="#74baed"] ;
15 -> 19 ;
20 [label="gini = 0.34\nsamples = 378\nvalue = [82, 296]", fillcolor="#70b8ec"] ;
19 -> 20 ;
21 [label="gini = 0.49\nsamples = 14\nvalue = [8, 6]", fillcolor="#f8e0ce"] ;
19 -> 21 ;
22 [label="X[71] <= 0.5\ngini = 0.105\nsamples = 4165\nvalue = [232, 3933]", fillcolor="#45a3e7"] ;
6 -> 22 ;
23 [label="X[47] <= 0.5\ngini = 0.104\nsamples = 4163\nvalue = [230, 3933]", fillcolor="#45a3e7"] ;
22 -> 23 ;
24 [label="X[82] <= 0.5\ngini = 0.096\nsamples = 3862\nvalue = [196, 3666]", fillcolor="#44a2e6"] ;
23 -> 24 ;
25 [label="gini = 0.084\nsamples = 3274\nvalue = [143, 3131]", fillcolor="#42a1e6"] ;
24 -> 25 ;
26 [label="gini = 0.164\nsamples = 588\nvalue = [53, 535]", fillcolor="#4da7e8"] ;
24 -> 26 ;
27 [label="X[8] <= 0.5\ngini = 0.2\nsamples = 301\nvalue = [34, 267]", fillcolor="#52a9e8"] ;
23 -> 27 ;
28 [label="gini = 0.186\nsamples = 298\nvalue = [31, 267]", fillcolor="#50a8e8"] ;
27 -> 28 ;
29 [label="gini = 0.0\nsamples = 3\nvalue = [3, 0]", fillcolor="#e58139"] ;
27 -> 29 ;
30 [label="gini = 0.0\nsamples = 2\nvalue = [2, 0]", fillcolor="#e58139"] ;
22 -> 30 ;
31 [label="X[35] <= 0.5\ngini = 0.103\nsamples = 16949\nvalue = [925, 16024]", fillcolor="#44a3e7"] ;
5 -> 31 ;
32 [label="X[2] <= 17.5\ngini = 0.118\nsamples = 12537\nvalue = [787, 11750]", fillcolor="#46a4e7"] ;
31 -> 32 ;
33 [label="X[24] <= 0.5\ngini = 0.038\nsamples = 875\nvalue = [17, 858]", fillcolor="#3d9fe6"] ;
32 -> 33 ;
34 [label="X[59] <= 0.5\ngini = 0.036\nsamples = 874\nvalue = [16, 858]", fillcolor="#3d9fe5"] ;
33 -> 34 ;
35 [label="gini = 0.034\nsamples = 872\nvalue = [15, 857]", fillcolor="#3c9fe5"] ;
34 -> 35 ;
36 [label="gini = 0.5\nsamples = 2\nvalue = [1, 1]", fillcolor="#ffffff"] ;
34 -> 36 ;
37 [label="gini = 0.0\nsamples = 1\nvalue = [1, 0]", fillcolor="#e58139"] ;
33 -> 37 ;
38 [label="X[2] <= 32.5\ngini = 0.123\nsamples = 11662\nvalue = [770, 10892]", fillcolor="#47a4e7"] ;
32 -> 38 ;
39 [label="X[56] <= 0.5\ngini = 0.116\nsamples = 10387\nvalue = [645, 9742]", fillcolor="#46a3e7"] ;
38 -> 39 ;
40 [label="gini = 0.119\nsamples = 10032\nvalue = [640, 9392]", fillcolor="#46a4e7"] ;
39 -> 40 ;
41 [label="gini = 0.028\nsamples = 355\nvalue = [5, 350]", fillcolor="#3c9ee5"] ;
39 -> 41 ;
42 [label="X[46] <= 0.5\ngini = 0.177\nsamples = 1275\nvalue = [125, 1150]", fillcolor="#4fa8e8"] ;
38 -> 42 ;
43 [label="gini = 0.144\nsamples = 989\nvalue = [77, 912]", fillcolor="#4aa5e7"] ;
42 -> 43 ;
44 [label="gini = 0.279\nsamples = 286\nvalue = [48, 238]", fillcolor="#61b1ea"] ;
42 -> 44 ;
45 [label="X[1] <= 4.5\ngini = 0.061\nsamples = 4412\nvalue = [138, 4274]", fillcolor="#3fa0e6"] ;
31 -> 45 ;
46 [label="X[65] <= 0.5\ngini = 0.057\nsamples = 4294\nvalue = [126, 4168]", fillcolor="#3fa0e6"] ;
45 -> 46 ;
47 [label="X[3] <= 2001.5\ngini = 0.048\nsamples = 3346\nvalue = [83, 3263]", fillcolor="#3e9fe6"] ;
46 -> 47 ;
48 [label="gini = 0.131\nsamples = 213\nvalue = [15, 198]", fillcolor="#48a4e7"] ;
47 -> 48 ;
49 [label="gini = 0.042\nsamples = 3133\nvalue = [68, 3065]", fillcolor="#3d9fe6"] ;
47 -> 49 ;
50 [label="X[0] <= 17.5\ngini = 0.087\nsamples = 948\nvalue = [43, 905]", fillcolor="#42a2e6"] ;
46 -> 50 ;
51 [label="gini = 0.32\nsamples = 15\nvalue = [3, 12]", fillcolor="#6ab6ec"] ;
50 -> 51 ;
52 [label="gini = 0.082\nsamples = 933\nvalue = [40, 893]", fillcolor="#42a1e6"] ;
50 -> 52 ;
53 [label="X[52] <= 0.5\ngini = 0.183\nsamples = 118\nvalue = [12, 106]", fillcolor="#4fa8e8"] ;
45 -> 53 ;
54 [label="X[3] <= 2007.5\ngini = 0.102\nsamples = 93\nvalue = [5, 88]", fillcolor="#44a3e6"] ;
53 -> 54 ;
55 [label="gini = 0.291\nsamples = 17\nvalue = [3, 14]", fillcolor="#63b2eb"] ;
54 -> 55 ;
56 [label="gini = 0.051\nsamples = 76\nvalue = [2, 74]", fillcolor="#3ea0e6"] ;
54 -> 56 ;
57 [label="X[2] <= 32.5\ngini = 0.403\nsamples = 25\nvalue = [7, 18]", fillcolor="#86c3ef"] ;
53 -> 57 ;
58 [label="gini = 0.124\nsamples = 15\nvalue = [1, 14]", fillcolor="#47a4e7"] ;
57 -> 58 ;
59 [label="gini = 0.48\nsamples = 10\nvalue = [6, 4]", fillcolor="#f6d5bd"] ;
57 -> 59 ;
60 [label="X[44] <= 0.5\ngini = 0.069\nsamples = 12697\nvalue = [456, 12241]", fillcolor="#40a1e6"] ;
4 -> 60 ;
61 [label="X[56] <= 0.5\ngini = 0.085\nsamples = 10036\nvalue = [448, 9588]", fillcolor="#42a2e6"] ;
60 -> 61 ;
62 [label="X[65] <= 0.5\ngini = 0.097\nsamples = 8507\nvalue = [435, 8072]", fillcolor="#44a2e6"] ;
61 -> 62 ;
63 [label="X[63] <= 0.5\ngini = 0.08\nsamples = 5857\nvalue = [246, 5611]", fillcolor="#42a1e6"] ;
62 -> 63 ;
64 [label="X[0] <= 51.5\ngini = 0.066\nsamples = 4417\nvalue = [151, 4266]", fillcolor="#40a0e6"] ;
63 -> 64 ;
65 [label="gini = 0.057\nsamples = 4052\nvalue = [120, 3932]", fillcolor="#3fa0e6"] ;
64 -> 65 ;
66 [label="gini = 0.155\nsamples = 365\nvalue = [31, 334]", fillcolor="#4ba6e7"] ;
64 -> 66 ;
67 [label="X[50] <= 0.5\ngini = 0.123\nsamples = 1440\nvalue = [95, 1345]", fillcolor="#47a4e7"] ;
63 -> 67 ;
68 [label="gini = 0.12\nsamples = 1437\nvalue = [92, 1345]", fillcolor="#47a4e7"] ;
67 -> 68 ;
69 [label="gini = 0.0\nsamples = 3\nvalue = [3, 0]", fillcolor="#e58139"] ;
67 -> 69 ;
70 [label="X[0] <= 32.5\ngini = 0.132\nsamples = 2650\nvalue = [189, 2461]", fillcolor="#48a5e7"] ;
62 -> 70 ;
71 [label="X[39] <= 0.5\ngini = 0.245\nsamples = 259\nvalue = [37, 222]", fillcolor="#5aade9"] ;
70 -> 71 ;
72 [label="gini = 0.37\nsamples = 106\nvalue = [26, 80]", fillcolor="#79bded"] ;
71 -> 72 ;
73 [label="gini = 0.133\nsamples = 153\nvalue = [11, 142]", fillcolor="#48a5e7"] ;
71 -> 73 ;
74 [label="X[47] <= 0.5\ngini = 0.119\nsamples = 2391\nvalue = [152, 2239]", fillcolor="#46a4e7"] ;
70 -> 74 ;
75 [label="gini = 0.113\nsamples = 2333\nvalue = [140, 2193]", fillcolor="#46a3e7"] ;
74 -> 75 ;
76 [label="gini = 0.328\nsamples = 58\nvalue = [12, 46]", fillcolor="#6db7ec"] ;
74 -> 76 ;
77 [label="X[0] <= 16.5\ngini = 0.017\nsamples = 1529\nvalue = [13, 1516]", fillcolor="#3b9ee5"] ;
61 -> 77 ;
78 [label="X[0] <= 8.0\ngini = 0.375\nsamples = 4\nvalue = [1, 3]", fillcolor="#7bbeee"] ;
77 -> 78 ;
79 [label="gini = 0.0\nsamples = 3\nvalue = [0, 3]", fillcolor="#399de5"] ;
78 -> 79 ;
80 [label="gini = 0.0\nsamples = 1\nvalue = [1, 0]", fillcolor="#e58139"] ;
78 -> 80 ;
81 [label="X[0] <= 29.5\ngini = 0.016\nsamples = 1525\nvalue = [12, 1513]", fillcolor="#3b9ee5"] ;
77 -> 81 ;
82 [label="X[63] <= 0.5\ngini = 0.094\nsamples = 81\nvalue = [4, 77]", fillcolor="#43a2e6"] ;
81 -> 82 ;
83 [label="gini = 0.052\nsamples = 75\nvalue = [2, 73]", fillcolor="#3ea0e6"] ;
82 -> 83 ;
84 [label="gini = 0.444\nsamples = 6\nvalue = [2, 4]", fillcolor="#9ccef2"] ;
82 -> 84 ;
85 [label="X[3] <= 2003.5\ngini = 0.011\nsamples = 1444\nvalue = [8, 1436]", fillcolor="#3a9ee5"] ;
81 -> 85 ;
86 [label="gini = 0.036\nsamples = 163\nvalue = [3, 160]", fillcolor="#3d9fe5"] ;
85 -> 86 ;
87 [label="gini = 0.008\nsamples = 1281\nvalue = [5, 1276]", fillcolor="#3a9de5"] ;
85 -> 87 ;
88 [label="X[40] <= 0.5\ngini = 0.006\nsamples = 2661\nvalue = [8, 2653]", fillcolor="#3a9de5"] ;
60 -> 88 ;
89 [label="X[3] <= 2017.5\ngini = 0.042\nsamples = 93\nvalue = [2, 91]", fillcolor="#3d9fe6"] ;
88 -> 89 ;
90 [label="X[3] <= 2007.0\ngini = 0.023\nsamples = 87\nvalue = [1, 86]", fillcolor="#3b9ee5"] ;
89 -> 90 ;
91 [label="X[3] <= 2005.5\ngini = 0.142\nsamples = 13\nvalue = [1, 12]", fillcolor="#49a5e7"] ;
90 -> 91 ;
92 [label="gini = 0.0\nsamples = 11\nvalue = [0, 11]", fillcolor="#399de5"] ;
91 -> 92 ;
93 [label="gini = 0.5\nsamples = 2\nvalue = [1, 1]", fillcolor="#ffffff"] ;
91 -> 93 ;
94 [label="gini = 0.0\nsamples = 74\nvalue = [0, 74]", fillcolor="#399de5"] ;
90 -> 94 ;
95 [label="X[52] <= 0.5\ngini = 0.278\nsamples = 6\nvalue = [1, 5]", fillcolor="#61b1ea"] ;
89 -> 95 ;
96 [label="gini = 0.0\nsamples = 5\nvalue = [0, 5]", fillcolor="#399de5"] ;
95 -> 96 ;
97 [label="gini = 0.0\nsamples = 1\nvalue = [1, 0]", fillcolor="#e58139"] ;
95 -> 97 ;
98 [label="X[3] <= 2012.5\ngini = 0.005\nsamples = 2568\nvalue = [6, 2562]", fillcolor="#399de5"] ;
88 -> 98 ;
99 [label="X[3] <= 2011.5\ngini = 0.022\nsamples = 182\nvalue = [2, 180]", fillcolor="#3b9ee5"] ;
98 -> 99 ;
100 [label="X[63] <= 0.5\ngini = 0.011\nsamples = 173\nvalue = [1, 172]", fillcolor="#3a9ee5"] ;
99 -> 100 ;
101 [label="gini = 0.0\nsamples = 140\nvalue = [0, 140]", fillcolor="#399de5"] ;
100 -> 101 ;
102 [label="gini = 0.059\nsamples = 33\nvalue = [1, 32]", fillcolor="#3fa0e6"] ;
100 -> 102 ;
103 [label="X[2] <= 32.5\ngini = 0.198\nsamples = 9\nvalue = [1, 8]", fillcolor="#52a9e8"] ;
99 -> 103 ;
104 [label="gini = 0.0\nsamples = 8\nvalue = [0, 8]", fillcolor="#399de5"] ;
103 -> 104 ;
105 [label="gini = 0.0\nsamples = 1\nvalue = [1, 0]", fillcolor="#e58139"] ;
103 -> 105 ;
106 [label="X[65] <= 0.5\ngini = 0.003\nsamples = 2386\nvalue = [4, 2382]", fillcolor="#399de5"] ;
98 -> 106 ;
107 [label="gini = 0.0\nsamples = 1677\nvalue = [0, 1677]", fillcolor="#399de5"] ;
106 -> 107 ;
108 [label="X[54] <= 0.5\ngini = 0.011\nsamples = 709\nvalue = [4, 705]", fillcolor="#3a9ee5"] ;
106 -> 108 ;
109 [label="gini = 0.004\nsamples = 456\nvalue = [1, 455]", fillcolor="#399de5"] ;
108 -> 109 ;
110 [label="gini = 0.023\nsamples = 253\nvalue = [3, 250]", fillcolor="#3b9ee5"] ;
108 -> 110 ;
111 [label="X[39] <= 0.5\ngini = 0.376\nsamples = 394\nvalue = [99, 295]", fillcolor="#7bbeee"] ;
3 -> 111 ;
112 [label="X[40] <= 0.5\ngini = 0.459\nsamples = 227\nvalue = [81, 146]", fillcolor="#a7d3f3"] ;
111 -> 112 ;
113 [label="X[38] <= 0.5\ngini = 0.496\nsamples = 134\nvalue = [61, 73]", fillcolor="#deeffb"] ;
112 -> 113 ;
114 [label="X[47] <= 0.5\ngini = 0.452\nsamples = 81\nvalue = [53, 28]", fillcolor="#f3c4a2"] ;
113 -> 114 ;
115 [label="X[54] <= 0.5\ngini = 0.47\nsamples = 74\nvalue = [46, 28]", fillcolor="#f5ceb2"] ;
114 -> 115 ;
116 [label="X[42] <= 0.5\ngini = 0.461\nsamples = 72\nvalue = [46, 26]", fillcolor="#f4c8a9"] ;
115 -> 116 ;
117 [label="gini = 0.358\nsamples = 30\nvalue = [23, 7]", fillcolor="#eda775"] ;
116 -> 117 ;
118 [label="gini = 0.495\nsamples = 42\nvalue = [23, 19]", fillcolor="#fae9dd"] ;
116 -> 118 ;
119 [label="gini = 0.0\nsamples = 2\nvalue = [0, 2]", fillcolor="#399de5"] ;
115 -> 119 ;
120 [label="gini = 0.0\nsamples = 7\nvalue = [7, 0]", fillcolor="#e58139"] ;
114 -> 120 ;
121 [label="X[0] <= 72.5\ngini = 0.256\nsamples = 53\nvalue = [8, 45]", fillcolor="#5caeea"] ;
113 -> 121 ;
122 [label="X[65] <= 0.5\ngini = 0.233\nsamples = 52\nvalue = [7, 45]", fillcolor="#58ace9"] ;
121 -> 122 ;
123 [label="X[3] <= 2013.5\ngini = 0.105\nsamples = 36\nvalue = [2, 34]", fillcolor="#45a3e7"] ;
122 -> 123 ;
124 [label="gini = 0.0\nsamples = 22\nvalue = [0, 22]", fillcolor="#399de5"] ;
123 -> 124 ;
125 [label="gini = 0.245\nsamples = 14\nvalue = [2, 12]", fillcolor="#5aade9"] ;
123 -> 125 ;
126 [label="X[42] <= 0.5\ngini = 0.43\nsamples = 16\nvalue = [5, 11]", fillcolor="#93caf1"] ;
122 -> 126 ;
127 [label="gini = 0.48\nsamples = 5\nvalue = [3, 2]", fillcolor="#f6d5bd"] ;
126 -> 127 ;
128 [label="gini = 0.298\nsamples = 11\nvalue = [2, 9]", fillcolor="#65b3eb"] ;
126 -> 128 ;
129 [label="gini = 0.0\nsamples = 1\nvalue = [1, 0]", fillcolor="#e58139"] ;
121 -> 129 ;
130 [label="X[43] <= 0.5\ngini = 0.338\nsamples = 93\nvalue = [20, 73]", fillcolor="#6fb8ec"] ;
112 -> 130 ;
131 [label="X[46] <= 0.5\ngini = 0.236\nsamples = 73\nvalue = [10, 63]", fillcolor="#58ade9"] ;
130 -> 131 ;
132 [label="X[65] <= 0.5\ngini = 0.158\nsamples = 58\nvalue = [5, 53]", fillcolor="#4ca6e7"] ;
131 -> 132 ;
133 [label="X[0] <= 37.0\ngini = 0.239\nsamples = 36\nvalue = [5, 31]", fillcolor="#59ade9"] ;
132 -> 133 ;
134 [label="gini = 0.5\nsamples = 2\nvalue = [1, 1]", fillcolor="#ffffff"] ;
133 -> 134 ;
135 [label="gini = 0.208\nsamples = 34\nvalue = [4, 30]", fillcolor="#53aae8"] ;
133 -> 135 ;
136 [label="gini = 0.0\nsamples = 22\nvalue = [0, 22]", fillcolor="#399de5"] ;
132 -> 136 ;
137 [label="X[3] <= 2003.5\ngini = 0.444\nsamples = 15\nvalue = [5, 10]", fillcolor="#9ccef2"] ;
131 -> 137 ;
138 [label="gini = 0.0\nsamples = 2\nvalue = [2, 0]", fillcolor="#e58139"] ;
137 -> 138 ;
139 [label="X[0] <= 48.0\ngini = 0.355\nsamples = 13\nvalue = [3, 10]", fillcolor="#74baed"] ;
137 -> 139 ;
140 [label="gini = 0.278\nsamples = 12\nvalue = [2, 10]", fillcolor="#61b1ea"] ;
139 -> 140 ;
141 [label="gini = 0.0\nsamples = 1\nvalue = [1, 0]", fillcolor="#e58139"] ;
139 -> 141 ;
142 [label="X[3] <= 2008.0\ngini = 0.5\nsamples = 20\nvalue = [10, 10]", fillcolor="#ffffff"] ;
130 -> 142 ;
143 [label="X[2] <= 32.5\ngini = 0.245\nsamples = 7\nvalue = [6, 1]", fillcolor="#e9965a"] ;
142 -> 143 ;
144 [label="gini = 0.0\nsamples = 6\nvalue = [6, 0]", fillcolor="#e58139"] ;
143 -> 144 ;
145 [label="gini = 0.0\nsamples = 1\nvalue = [0, 1]", fillcolor="#399de5"] ;
143 -> 145 ;
146 [label="X[1] <= 3.0\ngini = 0.426\nsamples = 13\nvalue = [4, 9]", fillcolor="#91c9f1"] ;
142 -> 146 ;
147 [label="X[3] <= 2011.0\ngini = 0.298\nsamples = 11\nvalue = [2, 9]", fillcolor="#65b3eb"] ;
146 -> 147 ;
148 [label="gini = 0.5\nsamples = 2\nvalue = [1, 1]", fillcolor="#ffffff"] ;
147 -> 148 ;
149 [label="gini = 0.198\nsamples = 9\nvalue = [1, 8]", fillcolor="#52a9e8"] ;
147 -> 149 ;
150 [label="gini = 0.0\nsamples = 2\nvalue = [2, 0]", fillcolor="#e58139"] ;
146 -> 150 ;
151 [label="X[2] <= 27.5\ngini = 0.192\nsamples = 167\nvalue = [18, 149]", fillcolor="#51a9e8"] ;
111 -> 151 ;
152 [label="gini = 0.0\nsamples = 55\nvalue = [0, 55]", fillcolor="#399de5"] ;
151 -> 152 ;
153 [label="X[63] <= 0.5\ngini = 0.27\nsamples = 112\nvalue = [18, 94]", fillcolor="#5fb0ea"] ;
151 -> 153 ;
154 [label="X[0] <= 78.0\ngini = 0.219\nsamples = 96\nvalue = [12, 84]", fillcolor="#55abe9"] ;
153 -> 154 ;
155 [label="X[3] <= 2016.5\ngini = 0.205\nsamples = 95\nvalue = [11, 84]", fillcolor="#53aae8"] ;
154 -> 155 ;
156 [label="X[65] <= 0.5\ngini = 0.158\nsamples = 81\nvalue = [7, 74]", fillcolor="#4ca6e7"] ;
155 -> 156 ;
157 [label="gini = 0.071\nsamples = 54\nvalue = [2, 52]", fillcolor="#41a1e6"] ;
156 -> 157 ;
158 [label="gini = 0.302\nsamples = 27\nvalue = [5, 22]", fillcolor="#66b3eb"] ;
156 -> 158 ;
159 [label="X[0] <= 52.0\ngini = 0.408\nsamples = 14\nvalue = [4, 10]", fillcolor="#88c4ef"] ;
155 -> 159 ;
160 [label="gini = 0.18\nsamples = 10\nvalue = [1, 9]", fillcolor="#4fa8e8"] ;
159 -> 160 ;
161 [label="gini = 0.375\nsamples = 4\nvalue = [3, 1]", fillcolor="#eeab7b"] ;
159 -> 161 ;
162 [label="gini = 0.0\nsamples = 1\nvalue = [1, 0]", fillcolor="#e58139"] ;
154 -> 162 ;
163 [label="X[42] <= 0.5\ngini = 0.469\nsamples = 16\nvalue = [6, 10]", fillcolor="#b0d8f5"] ;
153 -> 163 ;
164 [label="X[52] <= 0.5\ngini = 0.32\nsamples = 5\nvalue = [4, 1]", fillcolor="#eca06a"] ;
163 -> 164 ;
165 [label="gini = 0.0\nsamples = 1\nvalue = [0, 1]", fillcolor="#399de5"] ;
164 -> 165 ;
166 [label="gini = 0.0\nsamples = 4\nvalue = [4, 0]", fillcolor="#e58139"] ;
164 -> 166 ;
167 [label="X[0] <= 62.5\ngini = 0.298\nsamples = 11\nvalue = [2, 9]", fillcolor="#65b3eb"] ;
163 -> 167 ;
168 [label="X[3] <= 2009.5\ngini = 0.18\nsamples = 10\nvalue = [1, 9]", fillcolor="#4fa8e8"] ;
167 -> 168 ;
169 [label="gini = 0.0\nsamples = 5\nvalue = [0, 5]", fillcolor="#399de5"] ;
168 -> 169 ;
170 [label="gini = 0.32\nsamples = 5\nvalue = [1, 4]", fillcolor="#6ab6ec"] ;
168 -> 170 ;
171 [label="gini = 0.0\nsamples = 1\nvalue = [1, 0]", fillcolor="#e58139"] ;
167 -> 171 ;
172 [label="X[39] <= 0.5\ngini = 0.263\nsamples = 11709\nvalue = [1824, 9885]", fillcolor="#5eafea"] ;
2 -> 172 ;
173 [label="X[40] <= 0.5\ngini = 0.361\nsamples = 4879\nvalue = [1153, 3726]", fillcolor="#76bbed"] ;
172 -> 173 ;
174 [label="X[38] <= 0.5\ngini = 0.42\nsamples = 2918\nvalue = [876, 2042]", fillcolor="#8ec7f0"] ;
173 -> 174 ;
175 [label="X[30] <= 0.5\ngini = 0.499\nsamples = 1411\nvalue = [682, 729]", fillcolor="#f2f9fd"] ;
174 -> 175 ;
176 [label="X[5] <= 0.5\ngini = 0.5\nsamples = 1330\nvalue = [656, 674]", fillcolor="#fafcfe"] ;
175 -> 176 ;
177 [label="X[80] <= 0.5\ngini = 0.5\nsamples = 1279\nvalue = [641, 638]", fillcolor="#fffefe"] ;
176 -> 177 ;
178 [label="X[2] <= 27.5\ngini = 0.5\nsamples = 1259\nvalue = [637, 622]", fillcolor="#fefcfa"] ;
177 -> 178 ;
179 [label="gini = 0.462\nsamples = 69\nvalue = [25, 44]", fillcolor="#aad5f4"] ;
178 -> 179 ;
180 [label="gini = 0.5\nsamples = 1190\nvalue = [612, 578]", fillcolor="#fef8f4"] ;
178 -> 180 ;
181 [label="X[59] <= 0.5\ngini = 0.32\nsamples = 20\nvalue = [4, 16]", fillcolor="#6ab6ec"] ;
177 -> 181 ;
182 [label="gini = 0.198\nsamples = 18\nvalue = [2, 16]", fillcolor="#52a9e8"] ;
181 -> 182 ;
183 [label="gini = 0.0\nsamples = 2\nvalue = [2, 0]", fillcolor="#e58139"] ;
181 -> 183 ;
184 [label="X[0] <= 63.5\ngini = 0.415\nsamples = 51\nvalue = [15, 36]", fillcolor="#8bc6f0"] ;
176 -> 184 ;
185 [label="X[0] <= 27.5\ngini = 0.38\nsamples = 47\nvalue = [12, 35]", fillcolor="#7dbfee"] ;
184 -> 185 ;
186 [label="gini = 0.488\nsamples = 19\nvalue = [8, 11]", fillcolor="#c9e4f8"] ;
185 -> 186 ;
187 [label="gini = 0.245\nsamples = 28\nvalue = [4, 24]", fillcolor="#5aade9"] ;
185 -> 187 ;
188 [label="X[3] <= 2010.0\ngini = 0.375\nsamples = 4\nvalue = [3, 1]", fillcolor="#eeab7b"] ;
184 -> 188 ;
189 [label="gini = 0.0\nsamples = 3\nvalue = [3, 0]", fillcolor="#e58139"] ;
188 -> 189 ;
190 [label="gini = 0.0\nsamples = 1\nvalue = [0, 1]", fillcolor="#399de5"] ;
188 -> 190 ;
191 [label="X[50] <= 0.5\ngini = 0.436\nsamples = 81\nvalue = [26, 55]", fillcolor="#97cbf1"] ;
175 -> 191 ;
192 [label="X[65] <= 0.5\ngini = 0.382\nsamples = 70\nvalue = [18, 52]", fillcolor="#7ebfee"] ;
191 -> 192 ;
193 [label="X[3] <= 2016.5\ngini = 0.295\nsamples = 50\nvalue = [9, 41]", fillcolor="#64b3eb"] ;
192 -> 193 ;
194 [label="gini = 0.24\nsamples = 43\nvalue = [6, 37]", fillcolor="#59ade9"] ;
193 -> 194 ;
195 [label="gini = 0.49\nsamples = 7\nvalue = [3, 4]", fillcolor="#cee6f8"] ;
193 -> 195 ;
196 [label="X[0] <= 42.5\ngini = 0.495\nsamples = 20\nvalue = [9, 11]", fillcolor="#dbedfa"] ;
192 -> 196 ;
197 [label="gini = 0.408\nsamples = 14\nvalue = [4, 10]", fillcolor="#88c4ef"] ;
196 -> 197 ;
198 [label="gini = 0.278\nsamples = 6\nvalue = [5, 1]", fillcolor="#ea9a61"] ;
196 -> 198 ;
199 [label="X[3] <= 2005.5\ngini = 0.397\nsamples = 11\nvalue = [8, 3]", fillcolor="#efb083"] ;
191 -> 199 ;
200 [label="gini = 0.0\nsamples = 2\nvalue = [0, 2]", fillcolor="#399de5"] ;
199 -> 200 ;
201 [label="X[0] <= 30.0\ngini = 0.198\nsamples = 9\nvalue = [8, 1]", fillcolor="#e89152"] ;
199 -> 201 ;
202 [label="gini = 0.0\nsamples = 6\nvalue = [6, 0]", fillcolor="#e58139"] ;
201 -> 202 ;
203 [label="gini = 0.444\nsamples = 3\nvalue = [2, 1]", fillcolor="#f2c09c"] ;
201 -> 203 ;
204 [label="X[2] <= 32.5\ngini = 0.224\nsamples = 1507\nvalue = [194, 1313]", fillcolor="#56abe9"] ;
174 -> 204 ;
205 [label="X[50] <= 0.5\ngini = 0.205\nsamples = 1359\nvalue = [158, 1201]", fillcolor="#53aae8"] ;
204 -> 205 ;
206 [label="X[2] <= 27.5\ngini = 0.182\nsamples = 1108\nvalue = [112, 996]", fillcolor="#4fa8e8"] ;
205 -> 206 ;
207 [label="X[72] <= 0.5\ngini = 0.033\nsamples = 118\nvalue = [2, 116]", fillcolor="#3c9fe5"] ;
206 -> 207 ;
208 [label="gini = 0.018\nsamples = 113\nvalue = [1, 112]", fillcolor="#3b9ee5"] ;
207 -> 208 ;
209 [label="gini = 0.32\nsamples = 5\nvalue = [1, 4]", fillcolor="#6ab6ec"] ;
207 -> 209 ;
210 [label="X[30] <= 0.5\ngini = 0.198\nsamples = 990\nvalue = [110, 880]", fillcolor="#52a9e8"] ;
206 -> 210 ;
211 [label="gini = 0.225\nsamples = 743\nvalue = [96, 647]", fillcolor="#56ace9"] ;
210 -> 211 ;
212 [label="gini = 0.107\nsamples = 247\nvalue = [14, 233]", fillcolor="#45a3e7"] ;
210 -> 212 ;
213 [label="X[0] <= 19.5\ngini = 0.299\nsamples = 251\nvalue = [46, 205]", fillcolor="#65b3eb"] ;
205 -> 213 ;
214 [label="X[3] <= 2014.0\ngini = 0.486\nsamples = 12\nvalue = [7, 5]", fillcolor="#f8dbc6"] ;
213 -> 214 ;
215 [label="gini = 0.494\nsamples = 9\nvalue = [4, 5]", fillcolor="#d7ebfa"] ;
214 -> 215 ;
216 [label="gini = 0.0\nsamples = 3\nvalue = [3, 0]", fillcolor="#e58139"] ;
214 -> 216 ;
217 [label="X[0] <= 61.5\ngini = 0.273\nsamples = 239\nvalue = [39, 200]", fillcolor="#60b0ea"] ;
213 -> 217 ;
218 [label="gini = 0.248\nsamples = 221\nvalue = [32, 189]", fillcolor="#5baee9"] ;
217 -> 218 ;
219 [label="gini = 0.475\nsamples = 18\nvalue = [7, 11]", fillcolor="#b7dbf6"] ;
217 -> 219 ;
220 [label="X[63] <= 0.5\ngini = 0.368\nsamples = 148\nvalue = [36, 112]", fillcolor="#79bced"] ;
204 -> 220 ;
221 [label="X[64] <= 0.5\ngini = 0.395\nsamples = 133\nvalue = [36, 97]", fillcolor="#82c1ef"] ;
220 -> 221 ;
222 [label="X[0] <= 24.5\ngini = 0.353\nsamples = 96\nvalue = [22, 74]", fillcolor="#74baed"] ;
221 -> 222 ;
223 [label="gini = 0.0\nsamples = 15\nvalue = [0, 15]", fillcolor="#399de5"] ;
222 -> 223 ;
224 [label="gini = 0.396\nsamples = 81\nvalue = [22, 59]", fillcolor="#83c2ef"] ;
222 -> 224 ;
225 [label="X[3] <= 2007.5\ngini = 0.47\nsamples = 37\nvalue = [14, 23]", fillcolor="#b2d9f5"] ;
221 -> 225 ;
226 [label="gini = 0.142\nsamples = 13\nvalue = [1, 12]", fillcolor="#49a5e7"] ;
225 -> 226 ;
227 [label="gini = 0.497\nsamples = 24\nvalue = [13, 11]", fillcolor="#fbece1"] ;
225 -> 227 ;
228 [label="gini = 0.0\nsamples = 15\nvalue = [0, 15]", fillcolor="#399de5"] ;
220 -> 228 ;
229 [label="X[0] <= 35.5\ngini = 0.243\nsamples = 1961\nvalue = [277, 1684]", fillcolor="#5aade9"] ;
173 -> 229 ;
230 [label="X[2] <= 27.5\ngini = 0.367\nsamples = 277\nvalue = [67, 210]", fillcolor="#78bced"] ;
229 -> 230 ;
231 [label="gini = 0.0\nsamples = 22\nvalue = [0, 22]", fillcolor="#399de5"] ;
230 -> 231 ;
232 [label="X[0] <= 21.5\ngini = 0.387\nsamples = 255\nvalue = [67, 188]", fillcolor="#80c0ee"] ;
230 -> 232 ;
233 [label="X[52] <= 0.5\ngini = 0.484\nsamples = 51\nvalue = [21, 30]", fillcolor="#c4e2f7"] ;
232 -> 233 ;
234 [label="X[79] <= 0.5\ngini = 0.285\nsamples = 29\nvalue = [5, 24]", fillcolor="#62b1ea"] ;
233 -> 234 ;
235 [label="gini = 0.245\nsamples = 28\nvalue = [4, 24]", fillcolor="#5aade9"] ;
234 -> 235 ;
236 [label="gini = 0.0\nsamples = 1\nvalue = [1, 0]", fillcolor="#e58139"] ;
234 -> 236 ;
237 [label="X[3] <= 2012.5\ngini = 0.397\nsamples = 22\nvalue = [16, 6]", fillcolor="#efb083"] ;
233 -> 237 ;
238 [label="gini = 0.444\nsamples = 6\nvalue = [2, 4]", fillcolor="#9ccef2"] ;
237 -> 238 ;
239 [label="gini = 0.219\nsamples = 16\nvalue = [14, 2]", fillcolor="#e99355"] ;
237 -> 239 ;
240 [label="X[84] <= 0.5\ngini = 0.349\nsamples = 204\nvalue = [46, 158]", fillcolor="#73baed"] ;
232 -> 240 ;
241 [label="X[3] <= 2017.5\ngini = 0.341\nsamples = 202\nvalue = [44, 158]", fillcolor="#70b8ec"] ;
240 -> 241 ;
242 [label="gini = 0.32\nsamples = 185\nvalue = [37, 148]", fillcolor="#6ab6ec"] ;
241 -> 242 ;
243 [label="gini = 0.484\nsamples = 17\nvalue = [7, 10]", fillcolor="#c4e2f7"] ;
241 -> 243 ;
244 [label="gini = 0.0\nsamples = 2\nvalue = [2, 0]", fillcolor="#e58139"] ;
240 -> 244 ;
245 [label="X[43] <= 0.5\ngini = 0.218\nsamples = 1684\nvalue = [210, 1474]", fillcolor="#55abe9"] ;
229 -> 245 ;
246 [label="X[0] <= 58.5\ngini = 0.191\nsamples = 1381\nvalue = [148, 1233]", fillcolor="#51a9e8"] ;
245 -> 246 ;
247 [label="X[2] <= 4.5\ngini = 0.177\nsamples = 1308\nvalue = [128, 1180]", fillcolor="#4ea8e8"] ;
246 -> 247 ;
248 [label="X[99] <= 0.5\ngini = 0.48\nsamples = 5\nvalue = [3, 2]", fillcolor="#f6d5bd"] ;
247 -> 248 ;
249 [label="gini = 0.0\nsamples = 2\nvalue = [0, 2]", fillcolor="#399de5"] ;
248 -> 249 ;
250 [label="gini = 0.0\nsamples = 3\nvalue = [3, 0]", fillcolor="#e58139"] ;
248 -> 250 ;
251 [label="X[18] <= 0.5\ngini = 0.173\nsamples = 1303\nvalue = [125, 1178]", fillcolor="#4ea7e8"] ;
247 -> 251 ;
252 [label="gini = 0.189\nsamples = 1145\nvalue = [121, 1024]", fillcolor="#50a9e8"] ;
251 -> 252 ;
253 [label="gini = 0.049\nsamples = 158\nvalue = [4, 154]", fillcolor="#3ea0e6"] ;
251 -> 253 ;
254 [label="X[3] <= 2003.5\ngini = 0.398\nsamples = 73\nvalue = [20, 53]", fillcolor="#84c2ef"] ;
246 -> 254 ;
255 [label="X[3] <= 2000.5\ngini = 0.444\nsamples = 9\nvalue = [6, 3]", fillcolor="#f2c09c"] ;
254 -> 255 ;
256 [label="gini = 0.48\nsamples = 5\nvalue = [2, 3]", fillcolor="#bddef6"] ;
255 -> 256 ;
257 [label="gini = 0.0\nsamples = 4\nvalue = [4, 0]", fillcolor="#e58139"] ;
255 -> 257 ;
258 [label="X[3] <= 2014.5\ngini = 0.342\nsamples = 64\nvalue = [14, 50]", fillcolor="#70b8ec"] ;
254 -> 258 ;
259 [label="gini = 0.161\nsamples = 34\nvalue = [3, 31]", fillcolor="#4ca6e8"] ;
258 -> 259 ;
260 [label="gini = 0.464\nsamples = 30\nvalue = [11, 19]", fillcolor="#acd6f4"] ;
258 -> 260 ;
261 [label="X[10] <= 0.5\ngini = 0.326\nsamples = 303\nvalue = [62, 241]", fillcolor="#6cb6ec"] ;
245 -> 261 ;
262 [label="X[65] <= 0.5\ngini = 0.44\nsamples = 165\nvalue = [54, 111]", fillcolor="#99cdf2"] ;
261 -> 262 ;
263 [label="X[55] <= 0.5\ngini = 0.373\nsamples = 101\nvalue = [25, 76]", fillcolor="#7abdee"] ;
262 -> 263 ;
264 [label="gini = 0.351\nsamples = 97\nvalue = [22, 75]", fillcolor="#73baed"] ;
263 -> 264 ;
265 [label="gini = 0.375\nsamples = 4\nvalue = [3, 1]", fillcolor="#eeab7b"] ;
263 -> 265 ;
266 [label="X[3] <= 2001.5\ngini = 0.496\nsamples = 64\nvalue = [29, 35]", fillcolor="#ddeefb"] ;
262 -> 266 ;
267 [label="gini = 0.198\nsamples = 9\nvalue = [1, 8]", fillcolor="#52a9e8"] ;
266 -> 267 ;
268 [label="gini = 0.5\nsamples = 55\nvalue = [28, 27]", fillcolor="#fefaf8"] ;
266 -> 268 ;
269 [label="X[2] <= 27.5\ngini = 0.109\nsamples = 138\nvalue = [8, 130]", fillcolor="#45a3e7"] ;
261 -> 269 ;
270 [label="X[52] <= 0.5\ngini = 0.291\nsamples = 34\nvalue = [6, 28]", fillcolor="#63b2eb"] ;
269 -> 270 ;
271 [label="gini = 0.0\nsamples = 18\nvalue = [0, 18]", fillcolor="#399de5"] ;
270 -> 271 ;
272 [label="gini = 0.469\nsamples = 16\nvalue = [6, 10]", fillcolor="#b0d8f5"] ;
270 -> 272 ;
273 [label="X[50] <= 0.5\ngini = 0.038\nsamples = 104\nvalue = [2, 102]", fillcolor="#3d9fe6"] ;
269 -> 273 ;
274 [label="gini = 0.02\nsamples = 98\nvalue = [1, 97]", fillcolor="#3b9ee5"] ;
273 -> 274 ;
275 [label="gini = 0.278\nsamples = 6\nvalue = [1, 5]", fillcolor="#61b1ea"] ;
273 -> 275 ;
276 [label="X[18] <= 0.5\ngini = 0.177\nsamples = 6830\nvalue = [671, 6159]", fillcolor="#4fa8e8"] ;
172 -> 276 ;
277 [label="X[50] <= 0.5\ngini = 0.189\nsamples = 6092\nvalue = [645, 5447]", fillcolor="#50a9e8"] ;
276 -> 277 ;
278 [label="X[37] <= 0.5\ngini = 0.178\nsamples = 5488\nvalue = [542, 4946]", fillcolor="#4fa8e8"] ;
277 -> 278 ;
279 [label="X[13] <= 0.5\ngini = 0.198\nsamples = 3383\nvalue = [377, 3006]", fillcolor="#52a9e8"] ;
278 -> 279 ;
280 [label="X[2] <= 27.5\ngini = 0.238\nsamples = 1710\nvalue = [236, 1474]", fillcolor="#59ade9"] ;
279 -> 280 ;
281 [label="X[6] <= 0.5\ngini = 0.101\nsamples = 188\nvalue = [10, 178]", fillcolor="#44a3e6"] ;
280 -> 281 ;
282 [label="gini = 0.092\nsamples = 187\nvalue = [9, 178]", fillcolor="#43a2e6"] ;
281 -> 282 ;
283 [label="gini = 0.0\nsamples = 1\nvalue = [1, 0]", fillcolor="#e58139"] ;
281 -> 283 ;
284 [label="X[47] <= 0.5\ngini = 0.253\nsamples = 1522\nvalue = [226, 1296]", fillcolor="#5caeea"] ;
280 -> 284 ;
285 [label="gini = 0.244\nsamples = 1448\nvalue = [206, 1242]", fillcolor="#5aade9"] ;
284 -> 285 ;
286 [label="gini = 0.394\nsamples = 74\nvalue = [20, 54]", fillcolor="#82c1ef"] ;
284 -> 286 ;
287 [label="X[56] <= 0.5\ngini = 0.154\nsamples = 1673\nvalue = [141, 1532]", fillcolor="#4ba6e7"] ;
279 -> 287 ;
288 [label="X[65] <= 0.5\ngini = 0.153\nsamples = 1672\nvalue = [140, 1532]", fillcolor="#4ba6e7"] ;
287 -> 288 ;
289 [label="gini = 0.139\nsamples = 1250\nvalue = [94, 1156]", fillcolor="#49a5e7"] ;
288 -> 289 ;
290 [label="gini = 0.194\nsamples = 422\nvalue = [46, 376]", fillcolor="#51a9e8"] ;
288 -> 290 ;
291 [label="gini = 0.0\nsamples = 1\nvalue = [1, 0]", fillcolor="#e58139"] ;
287 -> 291 ;
292 [label="X[3] <= 2019.5\ngini = 0.144\nsamples = 2105\nvalue = [165, 1940]", fillcolor="#4aa5e7"] ;
278 -> 292 ;
293 [label="X[59] <= 0.5\ngini = 0.141\nsamples = 2090\nvalue = [160, 1930]", fillcolor="#49a5e7"] ;
292 -> 293 ;
294 [label="X[3] <= 2006.5\ngini = 0.135\nsamples = 2024\nvalue = [147, 1877]", fillcolor="#49a5e7"] ;
293 -> 294 ;
295 [label="gini = 0.195\nsamples = 522\nvalue = [57, 465]", fillcolor="#51a9e8"] ;
294 -> 295 ;
296 [label="gini = 0.113\nsamples = 1502\nvalue = [90, 1412]", fillcolor="#46a3e7"] ;
294 -> 296 ;
297 [label="X[2] <= 17.5\ngini = 0.316\nsamples = 66\nvalue = [13, 53]", fillcolor="#6ab5eb"] ;
293 -> 297 ;
298 [label="gini = 0.0\nsamples = 2\nvalue = [2, 0]", fillcolor="#e58139"] ;
297 -> 298 ;
299 [label="gini = 0.285\nsamples = 64\nvalue = [11, 53]", fillcolor="#62b1ea"] ;
297 -> 299 ;
300 [label="X[0] <= 41.5\ngini = 0.444\nsamples = 15\nvalue = [5, 10]", fillcolor="#9ccef2"] ;
292 -> 300 ;
301 [label="X[46] <= 0.5\ngini = 0.198\nsamples = 9\nvalue = [1, 8]", fillcolor="#52a9e8"] ;
300 -> 301 ;
302 [label="gini = 0.0\nsamples = 7\nvalue = [0, 7]", fillcolor="#399de5"] ;
301 -> 302 ;
303 [label="gini = 0.5\nsamples = 2\nvalue = [1, 1]", fillcolor="#ffffff"] ;
301 -> 303 ;
304 [label="X[0] <= 60.0\ngini = 0.444\nsamples = 6\nvalue = [4, 2]", fillcolor="#f2c09c"] ;
300 -> 304 ;
305 [label="gini = 0.0\nsamples = 4\nvalue = [4, 0]", fillcolor="#e58139"] ;
304 -> 305 ;
306 [label="gini = 0.0\nsamples = 2\nvalue = [0, 2]", fillcolor="#399de5"] ;
304 -> 306 ;
307 [label="X[20] <= 0.5\ngini = 0.283\nsamples = 604\nvalue = [103, 501]", fillcolor="#62b1ea"] ;
277 -> 307 ;
308 [label="X[2] <= 32.5\ngini = 0.334\nsamples = 373\nvalue = [79, 294]", fillcolor="#6eb7ec"] ;
307 -> 308 ;
309 [label="X[3] <= 2015.5\ngini = 0.357\nsamples = 336\nvalue = [78, 258]", fillcolor="#75bbed"] ;
308 -> 309 ;
310 [label="X[3] <= 2000.5\ngini = 0.399\nsamples = 229\nvalue = [63, 166]", fillcolor="#84c2ef"] ;
309 -> 310 ;
311 [label="gini = 0.083\nsamples = 23\nvalue = [1, 22]", fillcolor="#42a1e6"] ;
310 -> 311 ;
312 [label="gini = 0.421\nsamples = 206\nvalue = [62, 144]", fillcolor="#8ec7f0"] ;
310 -> 312 ;
313 [label="X[63] <= 0.5\ngini = 0.241\nsamples = 107\nvalue = [15, 92]", fillcolor="#59ade9"] ;
309 -> 313 ;
314 [label="gini = 0.18\nsamples = 90\nvalue = [9, 81]", fillcolor="#4fa8e8"] ;
313 -> 314 ;
315 [label="gini = 0.457\nsamples = 17\nvalue = [6, 11]", fillcolor="#a5d2f3"] ;
313 -> 315 ;
316 [label="X[3] <= 2018.5\ngini = 0.053\nsamples = 37\nvalue = [1, 36]", fillcolor="#3ea0e6"] ;
308 -> 316 ;
317 [label="gini = 0.0\nsamples = 35\nvalue = [0, 35]", fillcolor="#399de5"] ;
316 -> 317 ;
318 [label="X[0] <= 57.0\ngini = 0.5\nsamples = 2\nvalue = [1, 1]", fillcolor="#ffffff"] ;
316 -> 318 ;
319 [label="gini = 0.0\nsamples = 1\nvalue = [1, 0]", fillcolor="#e58139"] ;
318 -> 319 ;
320 [label="gini = 0.0\nsamples = 1\nvalue = [0, 1]", fillcolor="#399de5"] ;
318 -> 320 ;
321 [label="X[0] <= 20.5\ngini = 0.186\nsamples = 231\nvalue = [24, 207]", fillcolor="#50a8e8"] ;
307 -> 321 ;
322 [label="X[3] <= 2003.5\ngini = 0.457\nsamples = 17\nvalue = [6, 11]", fillcolor="#a5d2f3"] ;
321 -> 322 ;
323 [label="X[63] <= 0.5\ngini = 0.32\nsamples = 5\nvalue = [4, 1]", fillcolor="#eca06a"] ;
322 -> 323 ;
324 [label="gini = 0.0\nsamples = 4\nvalue = [4, 0]", fillcolor="#e58139"] ;
323 -> 324 ;
325 [label="gini = 0.0\nsamples = 1\nvalue = [0, 1]", fillcolor="#399de5"] ;
323 -> 325 ;
326 [label="X[3] <= 2017.5\ngini = 0.278\nsamples = 12\nvalue = [2, 10]", fillcolor="#61b1ea"] ;
322 -> 326 ;
327 [label="gini = 0.165\nsamples = 11\nvalue = [1, 10]", fillcolor="#4da7e8"] ;
326 -> 327 ;
328 [label="gini = 0.0\nsamples = 1\nvalue = [1, 0]", fillcolor="#e58139"] ;
326 -> 328 ;
329 [label="X[0] <= 78.0\ngini = 0.154\nsamples = 214\nvalue = [18, 196]", fillcolor="#4ba6e7"] ;
321 -> 329 ;
330 [label="X[42] <= 0.5\ngini = 0.14\nsamples = 211\nvalue = [16, 195]", fillcolor="#49a5e7"] ;
329 -> 330 ;
331 [label="gini = 0.205\nsamples = 95\nvalue = [11, 84]", fillcolor="#53aae8"] ;
330 -> 331 ;
332 [label="gini = 0.082\nsamples = 116\nvalue = [5, 111]", fillcolor="#42a1e6"] ;
330 -> 332 ;
333 [label="X[3] <= 2006.5\ngini = 0.444\nsamples = 3\nvalue = [2, 1]", fillcolor="#f2c09c"] ;
329 -> 333 ;
334 [label="gini = 0.0\nsamples = 1\nvalue = [0, 1]", fillcolor="#399de5"] ;
333 -> 334 ;
335 [label="gini = 0.0\nsamples = 2\nvalue = [2, 0]", fillcolor="#e58139"] ;
333 -> 335 ;
336 [label="X[2] <= 42.5\ngini = 0.068\nsamples = 738\nvalue = [26, 712]", fillcolor="#40a1e6"] ;
276 -> 336 ;
337 [label="X[1] <= 4.5\ngini = 0.063\nsamples = 735\nvalue = [24, 711]", fillcolor="#40a0e6"] ;
336 -> 337 ;
338 [label="X[0] <= 45.5\ngini = 0.057\nsamples = 714\nvalue = [21, 693]", fillcolor="#3fa0e6"] ;
337 -> 338 ;
339 [label="X[46] <= 0.5\ngini = 0.031\nsamples = 441\nvalue = [7, 434]", fillcolor="#3c9fe5"] ;
338 -> 339 ;
340 [label="X[3] <= 2014.5\ngini = 0.016\nsamples = 363\nvalue = [3, 360]", fillcolor="#3b9ee5"] ;
339 -> 340 ;
341 [label="gini = 0.0\nsamples = 217\nvalue = [0, 217]", fillcolor="#399de5"] ;
340 -> 341 ;
342 [label="gini = 0.04\nsamples = 146\nvalue = [3, 143]", fillcolor="#3d9fe6"] ;
340 -> 342 ;
343 [label="X[2] <= 27.5\ngini = 0.097\nsamples = 78\nvalue = [4, 74]", fillcolor="#44a2e6"] ;
339 -> 343 ;
344 [label="gini = 0.5\nsamples = 4\nvalue = [2, 2]", fillcolor="#ffffff"] ;
343 -> 344 ;
345 [label="gini = 0.053\nsamples = 74\nvalue = [2, 72]", fillcolor="#3ea0e6"] ;
343 -> 345 ;
346 [label="X[0] <= 50.5\ngini = 0.097\nsamples = 273\nvalue = [14, 259]", fillcolor="#44a2e6"] ;
338 -> 346 ;
347 [label="X[3] <= 2011.5\ngini = 0.184\nsamples = 78\nvalue = [8, 70]", fillcolor="#50a8e8"] ;
346 -> 347 ;
348 [label="gini = 0.35\nsamples = 31\nvalue = [7, 24]", fillcolor="#73baed"] ;
347 -> 348 ;
349 [label="gini = 0.042\nsamples = 47\nvalue = [1, 46]", fillcolor="#3d9fe6"] ;
347 -> 349 ;
350 [label="X[2] <= 32.5\ngini = 0.06\nsamples = 195\nvalue = [6, 189]", fillcolor="#3fa0e6"] ;
346 -> 350 ;
351 [label="gini = 0.043\nsamples = 182\nvalue = [4, 178]", fillcolor="#3d9fe6"] ;
350 -> 351 ;
352 [label="gini = 0.26\nsamples = 13\nvalue = [2, 11]", fillcolor="#5dafea"] ;
350 -> 352 ;
353 [label="X[3] <= 2004.5\ngini = 0.245\nsamples = 21\nvalue = [3, 18]", fillcolor="#5aade9"] ;
337 -> 353 ;
354 [label="X[0] <= 38.5\ngini = 0.375\nsamples = 4\nvalue = [3, 1]", fillcolor="#eeab7b"] ;
353 -> 354 ;
355 [label="gini = 0.0\nsamples = 3\nvalue = [3, 0]", fillcolor="#e58139"] ;
354 -> 355 ;
356 [label="gini = 0.0\nsamples = 1\nvalue = [0, 1]", fillcolor="#399de5"] ;
354 -> 356 ;
357 [label="gini = 0.0\nsamples = 17\nvalue = [0, 17]", fillcolor="#399de5"] ;
353 -> 357 ;
358 [label="X[3] <= 2014.5\ngini = 0.444\nsamples = 3\nvalue = [2, 1]", fillcolor="#f2c09c"] ;
336 -> 358 ;
359 [label="gini = 0.0\nsamples = 2\nvalue = [2, 0]", fillcolor="#e58139"] ;
358 -> 359 ;
360 [label="gini = 0.0\nsamples = 1\nvalue = [0, 1]", fillcolor="#399de5"] ;
358 -> 360 ;
361 [label="X[63] <= 0.5\ngini = 0.475\nsamples = 820\nvalue = [502, 318]", fillcolor="#f5d1b6"] ;
1 -> 361 ;
362 [label="X[0] <= 17.5\ngini = 0.481\nsamples = 765\nvalue = [457, 308]", fillcolor="#f7d6be"] ;
361 -> 362 ;
363 [label="X[0] <= 12.5\ngini = 0.324\nsamples = 54\nvalue = [43, 11]", fillcolor="#eca16c"] ;
362 -> 363 ;
364 [label="X[46] <= 0.5\ngini = 0.475\nsamples = 18\nvalue = [11, 7]", fillcolor="#f6d1b7"] ;
363 -> 364 ;
365 [label="X[56] <= 0.5\ngini = 0.408\nsamples = 14\nvalue = [10, 4]", fillcolor="#efb388"] ;
364 -> 365 ;
366 [label="X[39] <= 0.5\ngini = 0.355\nsamples = 13\nvalue = [10, 3]", fillcolor="#eda774"] ;
365 -> 366 ;
367 [label="X[41] <= 0.5\ngini = 0.278\nsamples = 12\nvalue = [10, 2]", fillcolor="#ea9a61"] ;
366 -> 367 ;
368 [label="X[2] <= 12.5\ngini = 0.444\nsamples = 6\nvalue = [4, 2]", fillcolor="#f2c09c"] ;
367 -> 368 ;
369 [label="gini = 0.0\nsamples = 1\nvalue = [0, 1]", fillcolor="#399de5"] ;
368 -> 369 ;
370 [label="gini = 0.32\nsamples = 5\nvalue = [4, 1]", fillcolor="#eca06a"] ;
368 -> 370 ;
371 [label="gini = 0.0\nsamples = 6\nvalue = [6, 0]", fillcolor="#e58139"] ;
367 -> 371 ;
372 [label="gini = 0.0\nsamples = 1\nvalue = [0, 1]", fillcolor="#399de5"] ;
366 -> 372 ;
373 [label="gini = 0.0\nsamples = 1\nvalue = [0, 1]", fillcolor="#399de5"] ;
365 -> 373 ;
374 [label="X[39] <= 0.5\ngini = 0.375\nsamples = 4\nvalue = [1, 3]", fillcolor="#7bbeee"] ;
364 -> 374 ;
375 [label="gini = 0.0\nsamples = 3\nvalue = [0, 3]", fillcolor="#399de5"] ;
374 -> 375 ;
376 [label="gini = 0.0\nsamples = 1\nvalue = [1, 0]", fillcolor="#e58139"] ;
374 -> 376 ;
377 [label="X[52] <= 0.5\ngini = 0.198\nsamples = 36\nvalue = [32, 4]", fillcolor="#e89152"] ;
363 -> 377 ;
378 [label="gini = 0.0\nsamples = 20\nvalue = [20, 0]", fillcolor="#e58139"] ;
377 -> 378 ;
379 [label="X[65] <= 0.5\ngini = 0.375\nsamples = 16\nvalue = [12, 4]", fillcolor="#eeab7b"] ;
377 -> 379 ;
380 [label="X[0] <= 14.5\ngini = 0.32\nsamples = 10\nvalue = [8, 2]", fillcolor="#eca06a"] ;
379 -> 380 ;
381 [label="X[0] <= 13.5\ngini = 0.5\nsamples = 4\nvalue = [2, 2]", fillcolor="#ffffff"] ;
380 -> 381 ;
382 [label="gini = 0.0\nsamples = 1\nvalue = [1, 0]", fillcolor="#e58139"] ;
381 -> 382 ;
383 [label="X[41] <= 0.5\ngini = 0.444\nsamples = 3\nvalue = [1, 2]", fillcolor="#9ccef2"] ;
381 -> 383 ;
384 [label="gini = 0.5\nsamples = 2\nvalue = [1, 1]", fillcolor="#ffffff"] ;
383 -> 384 ;
385 [label="gini = 0.0\nsamples = 1\nvalue = [0, 1]", fillcolor="#399de5"] ;
383 -> 385 ;
386 [label="gini = 0.0\nsamples = 6\nvalue = [6, 0]", fillcolor="#e58139"] ;
380 -> 386 ;
387 [label="X[0] <= 15.0\ngini = 0.444\nsamples = 6\nvalue = [4, 2]", fillcolor="#f2c09c"] ;
379 -> 387 ;
388 [label="gini = 0.0\nsamples = 3\nvalue = [3, 0]", fillcolor="#e58139"] ;
387 -> 388 ;
389 [label="X[0] <= 16.5\ngini = 0.444\nsamples = 3\nvalue = [1, 2]", fillcolor="#9ccef2"] ;
387 -> 389 ;
390 [label="gini = 0.0\nsamples = 1\nvalue = [0, 1]", fillcolor="#399de5"] ;
389 -> 390 ;
391 [label="gini = 0.5\nsamples = 2\nvalue = [1, 1]", fillcolor="#ffffff"] ;
389 -> 391 ;
392 [label="X[2] <= 17.5\ngini = 0.486\nsamples = 711\nvalue = [414, 297]", fillcolor="#f8dbc7"] ;
362 -> 392 ;
393 [label="X[3] <= 2008.0\ngini = 0.464\nsamples = 30\nvalue = [11, 19]", fillcolor="#acd6f4"] ;
392 -> 393 ;
394 [label="gini = 0.0\nsamples = 3\nvalue = [3, 0]", fillcolor="#e58139"] ;
393 -> 394 ;
395 [label="X[47] <= 0.5\ngini = 0.417\nsamples = 27\nvalue = [8, 19]", fillcolor="#8cc6f0"] ;
393 -> 395 ;
396 [label="X[55] <= 0.5\ngini = 0.365\nsamples = 25\nvalue = [6, 19]", fillcolor="#78bced"] ;
395 -> 396 ;
397 [label="X[1] <= 1.5\ngini = 0.33\nsamples = 24\nvalue = [5, 19]", fillcolor="#6db7ec"] ;
396 -> 397 ;
398 [label="gini = 0.0\nsamples = 1\nvalue = [1, 0]", fillcolor="#e58139"] ;
397 -> 398 ;
399 [label="X[0] <= 29.5\ngini = 0.287\nsamples = 23\nvalue = [4, 19]", fillcolor="#63b2ea"] ;
397 -> 399 ;
400 [label="gini = 0.0\nsamples = 6\nvalue = [0, 6]", fillcolor="#399de5"] ;
399 -> 400 ;
401 [label="gini = 0.36\nsamples = 17\nvalue = [4, 13]", fillcolor="#76bbed"] ;
399 -> 401 ;
402 [label="gini = 0.0\nsamples = 1\nvalue = [1, 0]", fillcolor="#e58139"] ;
396 -> 402 ;
403 [label="gini = 0.0\nsamples = 2\nvalue = [2, 0]", fillcolor="#e58139"] ;
395 -> 403 ;
404 [label="X[2] <= 27.5\ngini = 0.483\nsamples = 681\nvalue = [403, 278]", fillcolor="#f7d8c2"] ;
392 -> 404 ;
405 [label="X[65] <= 0.5\ngini = 0.411\nsamples = 76\nvalue = [54, 22]", fillcolor="#f0b48a"] ;
404 -> 405 ;
406 [label="X[3] <= 2016.5\ngini = 0.346\nsamples = 63\nvalue = [49, 14]", fillcolor="#eca572"] ;
405 -> 406 ;
407 [label="X[42] <= 0.5\ngini = 0.307\nsamples = 58\nvalue = [47, 11]", fillcolor="#eb9e67"] ;
406 -> 407 ;
408 [label="gini = 0.0\nsamples = 20\nvalue = [20, 0]", fillcolor="#e58139"] ;
407 -> 408 ;
409 [label="X[3] <= 2010.0\ngini = 0.411\nsamples = 38\nvalue = [27, 11]", fillcolor="#f0b48a"] ;
407 -> 409 ;
410 [label="gini = 0.0\nsamples = 8\nvalue = [8, 0]", fillcolor="#e58139"] ;
409 -> 410 ;
411 [label="gini = 0.464\nsamples = 30\nvalue = [19, 11]", fillcolor="#f4caac"] ;
409 -> 411 ;
412 [label="X[42] <= 0.5\ngini = 0.48\nsamples = 5\nvalue = [2, 3]", fillcolor="#bddef6"] ;
406 -> 412 ;
413 [label="gini = 0.0\nsamples = 3\nvalue = [0, 3]", fillcolor="#399de5"] ;
412 -> 413 ;
414 [label="gini = 0.0\nsamples = 2\nvalue = [2, 0]", fillcolor="#e58139"] ;
412 -> 414 ;
415 [label="X[0] <= 42.0\ngini = 0.473\nsamples = 13\nvalue = [5, 8]", fillcolor="#b5daf5"] ;
405 -> 415 ;
416 [label="X[2] <= 22.5\ngini = 0.219\nsamples = 8\nvalue = [1, 7]", fillcolor="#55abe9"] ;
415 -> 416 ;
417 [label="gini = 0.0\nsamples = 1\nvalue = [1, 0]", fillcolor="#e58139"] ;
416 -> 417 ;
418 [label="gini = 0.0\nsamples = 7\nvalue = [0, 7]", fillcolor="#399de5"] ;
416 -> 418 ;
419 [label="X[41] <= 0.5\ngini = 0.32\nsamples = 5\nvalue = [4, 1]", fillcolor="#eca06a"] ;
415 -> 419 ;
420 [label="gini = 0.0\nsamples = 4\nvalue = [4, 0]", fillcolor="#e58139"] ;
419 -> 420 ;
421 [label="gini = 0.0\nsamples = 1\nvalue = [0, 1]", fillcolor="#399de5"] ;
419 -> 421 ;
422 [label="X[41] <= 0.5\ngini = 0.488\nsamples = 605\nvalue = [349, 256]", fillcolor="#f8ddca"] ;
404 -> 422 ;
423 [label="X[3] <= 2018.5\ngini = 0.496\nsamples = 383\nvalue = [208, 175]", fillcolor="#fbebe0"] ;
422 -> 423 ;
424 [label="X[1] <= 3.5\ngini = 0.495\nsamples = 377\nvalue = [207, 170]", fillcolor="#fae8dc"] ;
423 -> 424 ;
425 [label="X[42] <= 0.5\ngini = 0.492\nsamples = 348\nvalue = [196, 152]", fillcolor="#f9e3d3"] ;
424 -> 425 ;
426 [label="gini = 0.471\nsamples = 142\nvalue = [88, 54]", fillcolor="#f5ceb2"] ;
425 -> 426 ;
427 [label="gini = 0.499\nsamples = 206\nvalue = [108, 98]", fillcolor="#fdf3ed"] ;
425 -> 427 ;
428 [label="X[0] <= 40.0\ngini = 0.471\nsamples = 29\nvalue = [11, 18]", fillcolor="#b2d9f5"] ;
424 -> 428 ;
429 [label="gini = 0.198\nsamples = 18\nvalue = [2, 16]", fillcolor="#52a9e8"] ;
428 -> 429 ;
430 [label="gini = 0.298\nsamples = 11\nvalue = [9, 2]", fillcolor="#eb9d65"] ;
428 -> 430 ;
431 [label="X[42] <= 0.5\ngini = 0.278\nsamples = 6\nvalue = [1, 5]", fillcolor="#61b1ea"] ;
423 -> 431 ;
432 [label="gini = 0.0\nsamples = 5\nvalue = [0, 5]", fillcolor="#399de5"] ;
431 -> 432 ;
433 [label="gini = 0.0\nsamples = 1\nvalue = [1, 0]", fillcolor="#e58139"] ;
431 -> 433 ;
434 [label="X[1] <= 5.0\ngini = 0.463\nsamples = 222\nvalue = [141, 81]", fillcolor="#f4c9ab"] ;
422 -> 434 ;
435 [label="X[3] <= 2000.0\ngini = 0.457\nsamples = 218\nvalue = [141, 77]", fillcolor="#f3c6a5"] ;
434 -> 435 ;
436 [label="X[42] <= 0.5\ngini = 0.32\nsamples = 5\nvalue = [1, 4]", fillcolor="#6ab6ec"] ;
435 -> 436 ;
437 [label="gini = 0.0\nsamples = 1\nvalue = [1, 0]", fillcolor="#e58139"] ;
436 -> 437 ;
438 [label="gini = 0.0\nsamples = 4\nvalue = [0, 4]", fillcolor="#399de5"] ;
436 -> 438 ;
439 [label="X[50] <= 0.5\ngini = 0.451\nsamples = 213\nvalue = [140, 73]", fillcolor="#f3c3a0"] ;
435 -> 439 ;
440 [label="gini = 0.466\nsamples = 187\nvalue = [118, 69]", fillcolor="#f4cbad"] ;
439 -> 440 ;
441 [label="gini = 0.26\nsamples = 26\nvalue = [22, 4]", fillcolor="#ea985d"] ;
439 -> 441 ;
442 [label="gini = 0.0\nsamples = 4\nvalue = [0, 4]", fillcolor="#399de5"] ;
434 -> 442 ;
443 [label="X[1] <= 1.5\ngini = 0.298\nsamples = 55\nvalue = [45, 10]", fillcolor="#eb9d65"] ;
361 -> 443 ;
444 [label="gini = 0.0\nsamples = 2\nvalue = [0, 2]", fillcolor="#399de5"] ;
443 -> 444 ;
445 [label="X[42] <= 0.5\ngini = 0.256\nsamples = 53\nvalue = [45, 8]", fillcolor="#ea975c"] ;
443 -> 445 ;
446 [label="gini = 0.0\nsamples = 18\nvalue = [18, 0]", fillcolor="#e58139"] ;
445 -> 446 ;
447 [label="X[0] <= 28.5\ngini = 0.353\nsamples = 35\nvalue = [27, 8]", fillcolor="#eda674"] ;
445 -> 447 ;
448 [label="gini = 0.0\nsamples = 10\nvalue = [10, 0]", fillcolor="#e58139"] ;
447 -> 448 ;
449 [label="X[54] <= 0.5\ngini = 0.435\nsamples = 25\nvalue = [17, 8]", fillcolor="#f1bc96"] ;
447 -> 449 ;
450 [label="X[0] <= 71.5\ngini = 0.386\nsamples = 23\nvalue = [17, 6]", fillcolor="#eead7f"] ;
449 -> 450 ;
451 [label="X[55] <= 0.5\ngini = 0.351\nsamples = 22\nvalue = [17, 5]", fillcolor="#eda673"] ;
450 -> 451 ;
452 [label="X[41] <= 0.5\ngini = 0.266\nsamples = 19\nvalue = [16, 3]", fillcolor="#ea995e"] ;
451 -> 452 ;
453 [label="gini = 0.0\nsamples = 8\nvalue = [8, 0]", fillcolor="#e58139"] ;
452 -> 453 ;
454 [label="gini = 0.397\nsamples = 11\nvalue = [8, 3]", fillcolor="#efb083"] ;
452 -> 454 ;
455 [label="X[0] <= 40.5\ngini = 0.444\nsamples = 3\nvalue = [1, 2]", fillcolor="#9ccef2"] ;
451 -> 455 ;
456 [label="gini = 0.0\nsamples = 2\nvalue = [0, 2]", fillcolor="#399de5"] ;
455 -> 456 ;
457 [label="gini = 0.0\nsamples = 1\nvalue = [1, 0]", fillcolor="#e58139"] ;
455 -> 457 ;
458 [label="gini = 0.0\nsamples = 1\nvalue = [0, 1]", fillcolor="#399de5"] ;
450 -> 458 ;
459 [label="gini = 0.0\nsamples = 2\nvalue = [0, 2]", fillcolor="#399de5"] ;
449 -> 459 ;
460 [label="X[2] <= 27.5\ngini = 0.391\nsamples = 1511\nvalue = [1109, 402]", fillcolor="#eeaf81"] ;
0 -> 460 [labeldistance=2.5, labelangle=-45, headlabel="False"] ;
461 [label="X[52] <= 0.5\ngini = 0.481\nsamples = 263\nvalue = [157, 106]", fillcolor="#f7d6bf"] ;
460 -> 461 ;
462 [label="X[0] <= 57.5\ngini = 0.45\nsamples = 190\nvalue = [125, 65]", fillcolor="#f3c3a0"] ;
461 -> 462 ;
463 [label="X[57] <= 0.5\ngini = 0.425\nsamples = 163\nvalue = [113, 50]", fillcolor="#f1b991"] ;
462 -> 463 ;
464 [label="X[55] <= 0.5\ngini = 0.419\nsamples = 161\nvalue = [113, 48]", fillcolor="#f0b78d"] ;
463 -> 464 ;
465 [label="X[0] <= 40.5\ngini = 0.402\nsamples = 151\nvalue = [109, 42]", fillcolor="#efb285"] ;
464 -> 465 ;
466 [label="X[2] <= 22.5\ngini = 0.435\nsamples = 122\nvalue = [83, 39]", fillcolor="#f1bc96"] ;
465 -> 466 ;
467 [label="X[46] <= 0.5\ngini = 0.472\nsamples = 76\nvalue = [47, 29]", fillcolor="#f5cfb3"] ;
466 -> 467 ;
468 [label="X[1] <= 0.5\ngini = 0.485\nsamples = 70\nvalue = [41, 29]", fillcolor="#f7dac5"] ;
467 -> 468 ;
469 [label="gini = 0.0\nsamples = 3\nvalue = [3, 0]", fillcolor="#e58139"] ;
468 -> 469 ;
470 [label="gini = 0.491\nsamples = 67\nvalue = [38, 29]", fillcolor="#f9e1d0"] ;
468 -> 470 ;
471 [label="gini = 0.0\nsamples = 6\nvalue = [6, 0]", fillcolor="#e58139"] ;
467 -> 471 ;
472 [label="X[46] <= 0.5\ngini = 0.34\nsamples = 46\nvalue = [36, 10]", fillcolor="#eca470"] ;
466 -> 472 ;
473 [label="X[1] <= 1.5\ngini = 0.255\nsamples = 40\nvalue = [34, 6]", fillcolor="#ea975c"] ;
472 -> 473 ;
474 [label="gini = 0.5\nsamples = 6\nvalue = [3, 3]", fillcolor="#ffffff"] ;
473 -> 474 ;
475 [label="gini = 0.161\nsamples = 34\nvalue = [31, 3]", fillcolor="#e88d4c"] ;
473 -> 475 ;
476 [label="X[64] <= 0.5\ngini = 0.444\nsamples = 6\nvalue = [2, 4]", fillcolor="#9ccef2"] ;
472 -> 476 ;
477 [label="gini = 0.32\nsamples = 5\nvalue = [1, 4]", fillcolor="#6ab6ec"] ;
476 -> 477 ;
478 [label="gini = 0.0\nsamples = 1\nvalue = [1, 0]", fillcolor="#e58139"] ;
476 -> 478 ;
479 [label="X[65] <= 0.5\ngini = 0.185\nsamples = 29\nvalue = [26, 3]", fillcolor="#e89050"] ;
465 -> 479 ;
480 [label="X[2] <= 22.5\ngini = 0.091\nsamples = 21\nvalue = [20, 1]", fillcolor="#e68743"] ;
479 -> 480 ;
481 [label="gini = 0.0\nsamples = 17\nvalue = [17, 0]", fillcolor="#e58139"] ;
480 -> 481 ;
482 [label="X[1] <= 1.5\ngini = 0.375\nsamples = 4\nvalue = [3, 1]", fillcolor="#eeab7b"] ;
480 -> 482 ;
483 [label="gini = 0.5\nsamples = 2\nvalue = [1, 1]", fillcolor="#ffffff"] ;
482 -> 483 ;
484 [label="gini = 0.0\nsamples = 2\nvalue = [2, 0]", fillcolor="#e58139"] ;
482 -> 484 ;
485 [label="X[2] <= 22.5\ngini = 0.375\nsamples = 8\nvalue = [6, 2]", fillcolor="#eeab7b"] ;
479 -> 485 ;
486 [label="X[0] <= 44.5\ngini = 0.444\nsamples = 3\nvalue = [1, 2]", fillcolor="#9ccef2"] ;
485 -> 486 ;
487 [label="gini = 0.0\nsamples = 1\nvalue = [1, 0]", fillcolor="#e58139"] ;
486 -> 487 ;
488 [label="gini = 0.0\nsamples = 2\nvalue = [0, 2]", fillcolor="#399de5"] ;
486 -> 488 ;
489 [label="gini = 0.0\nsamples = 5\nvalue = [5, 0]", fillcolor="#e58139"] ;
485 -> 489 ;
490 [label="X[0] <= 40.5\ngini = 0.48\nsamples = 10\nvalue = [4, 6]", fillcolor="#bddef6"] ;
464 -> 490 ;
491 [label="X[63] <= 0.5\ngini = 0.444\nsamples = 6\nvalue = [4, 2]", fillcolor="#f2c09c"] ;
490 -> 491 ;
492 [label="gini = 0.0\nsamples = 4\nvalue = [4, 0]", fillcolor="#e58139"] ;
491 -> 492 ;
493 [label="gini = 0.0\nsamples = 2\nvalue = [0, 2]", fillcolor="#399de5"] ;
491 -> 493 ;
494 [label="gini = 0.0\nsamples = 4\nvalue = [0, 4]", fillcolor="#399de5"] ;
490 -> 494 ;
495 [label="gini = 0.0\nsamples = 2\nvalue = [0, 2]", fillcolor="#399de5"] ;
463 -> 495 ;
496 [label="X[0] <= 71.5\ngini = 0.494\nsamples = 27\nvalue = [12, 15]", fillcolor="#d7ebfa"] ;
462 -> 496 ;
497 [label="X[2] <= 4.0\ngini = 0.432\nsamples = 19\nvalue = [6, 13]", fillcolor="#94caf1"] ;
496 -> 497 ;
498 [label="gini = 0.0\nsamples = 2\nvalue = [2, 0]", fillcolor="#e58139"] ;
497 -> 498 ;
499 [label="X[1] <= 1.5\ngini = 0.36\nsamples = 17\nvalue = [4, 13]", fillcolor="#76bbed"] ;
497 -> 499 ;
500 [label="X[65] <= 0.5\ngini = 0.444\nsamples = 3\nvalue = [2, 1]", fillcolor="#f2c09c"] ;
499 -> 500 ;
501 [label="gini = 0.0\nsamples = 2\nvalue = [2, 0]", fillcolor="#e58139"] ;
500 -> 501 ;
502 [label="gini = 0.0\nsamples = 1\nvalue = [0, 1]", fillcolor="#399de5"] ;
500 -> 502 ;
503 [label="X[40] <= 0.5\ngini = 0.245\nsamples = 14\nvalue = [2, 12]", fillcolor="#5aade9"] ;
499 -> 503 ;
504 [label="gini = 0.0\nsamples = 7\nvalue = [0, 7]", fillcolor="#399de5"] ;
503 -> 504 ;
505 [label="X[42] <= 0.5\ngini = 0.408\nsamples = 7\nvalue = [2, 5]", fillcolor="#88c4ef"] ;
503 -> 505 ;
506 [label="gini = 0.0\nsamples = 3\nvalue = [0, 3]", fillcolor="#399de5"] ;
505 -> 506 ;
507 [label="X[2] <= 12.5\ngini = 0.5\nsamples = 4\nvalue = [2, 2]", fillcolor="#ffffff"] ;
505 -> 507 ;
508 [label="gini = 0.0\nsamples = 1\nvalue = [1, 0]", fillcolor="#e58139"] ;
507 -> 508 ;
509 [label="gini = 0.444\nsamples = 3\nvalue = [1, 2]", fillcolor="#9ccef2"] ;
507 -> 509 ;
510 [label="X[0] <= 85.0\ngini = 0.375\nsamples = 8\nvalue = [6, 2]", fillcolor="#eeab7b"] ;
496 -> 510 ;
511 [label="gini = 0.0\nsamples = 6\nvalue = [6, 0]", fillcolor="#e58139"] ;
510 -> 511 ;
512 [label="gini = 0.0\nsamples = 2\nvalue = [0, 2]", fillcolor="#399de5"] ;
510 -> 512 ;
513 [label="X[41] <= 0.5\ngini = 0.492\nsamples = 73\nvalue = [32, 41]", fillcolor="#d4e9f9"] ;
461 -> 513 ;
514 [label="X[65] <= 0.5\ngini = 0.491\nsamples = 46\nvalue = [26, 20]", fillcolor="#f9e2d1"] ;
513 -> 514 ;
515 [label="X[0] <= 5.5\ngini = 0.494\nsamples = 36\nvalue = [16, 20]", fillcolor="#d7ebfa"] ;
514 -> 515 ;
516 [label="gini = 0.0\nsamples = 3\nvalue = [3, 0]", fillcolor="#e58139"] ;
515 -> 516 ;
517 [label="X[3] <= 2009.5\ngini = 0.478\nsamples = 33\nvalue = [13, 20]", fillcolor="#baddf6"] ;
515 -> 517 ;
518 [label="X[0] <= 39.5\ngini = 0.32\nsamples = 5\nvalue = [4, 1]", fillcolor="#eca06a"] ;
517 -> 518 ;
519 [label="X[0] <= 33.5\ngini = 0.5\nsamples = 2\nvalue = [1, 1]", fillcolor="#ffffff"] ;
518 -> 519 ;
520 [label="gini = 0.0\nsamples = 1\nvalue = [1, 0]", fillcolor="#e58139"] ;
519 -> 520 ;
521 [label="gini = 0.0\nsamples = 1\nvalue = [0, 1]", fillcolor="#399de5"] ;
519 -> 521 ;
522 [label="gini = 0.0\nsamples = 3\nvalue = [3, 0]", fillcolor="#e58139"] ;
518 -> 522 ;
523 [label="X[43] <= 0.5\ngini = 0.436\nsamples = 28\nvalue = [9, 19]", fillcolor="#97cbf1"] ;
517 -> 523 ;
524 [label="X[0] <= 62.5\ngini = 0.393\nsamples = 26\nvalue = [7, 19]", fillcolor="#82c1ef"] ;
523 -> 524 ;
525 [label="X[0] <= 34.0\ngini = 0.365\nsamples = 25\nvalue = [6, 19]", fillcolor="#78bced"] ;
524 -> 525 ;
526 [label="gini = 0.49\nsamples = 7\nvalue = [3, 4]", fillcolor="#cee6f8"] ;
525 -> 526 ;
527 [label="gini = 0.278\nsamples = 18\nvalue = [3, 15]", fillcolor="#61b1ea"] ;
525 -> 527 ;
528 [label="gini = 0.0\nsamples = 1\nvalue = [1, 0]", fillcolor="#e58139"] ;
524 -> 528 ;
529 [label="gini = 0.0\nsamples = 2\nvalue = [2, 0]", fillcolor="#e58139"] ;
523 -> 529 ;
530 [label="gini = 0.0\nsamples = 10\nvalue = [10, 0]", fillcolor="#e58139"] ;
514 -> 530 ;
531 [label="X[0] <= 48.0\ngini = 0.346\nsamples = 27\nvalue = [6, 21]", fillcolor="#72b9ec"] ;
513 -> 531 ;
532 [label="X[42] <= 0.5\ngini = 0.111\nsamples = 17\nvalue = [1, 16]", fillcolor="#45a3e7"] ;
531 -> 532 ;
533 [label="X[0] <= 33.0\ngini = 0.32\nsamples = 5\nvalue = [1, 4]", fillcolor="#6ab6ec"] ;
532 -> 533 ;
534 [label="gini = 0.0\nsamples = 1\nvalue = [1, 0]", fillcolor="#e58139"] ;
533 -> 534 ;
535 [label="gini = 0.0\nsamples = 4\nvalue = [0, 4]", fillcolor="#399de5"] ;
533 -> 535 ;
536 [label="gini = 0.0\nsamples = 12\nvalue = [0, 12]", fillcolor="#399de5"] ;
532 -> 536 ;
537 [label="X[0] <= 54.5\ngini = 0.5\nsamples = 10\nvalue = [5, 5]", fillcolor="#ffffff"] ;
531 -> 537 ;
538 [label="gini = 0.0\nsamples = 3\nvalue = [3, 0]", fillcolor="#e58139"] ;
537 -> 538 ;
539 [label="X[40] <= 0.5\ngini = 0.408\nsamples = 7\nvalue = [2, 5]", fillcolor="#88c4ef"] ;
537 -> 539 ;
540 [label="gini = 0.0\nsamples = 2\nvalue = [0, 2]", fillcolor="#399de5"] ;
539 -> 540 ;
541 [label="X[0] <= 58.0\ngini = 0.48\nsamples = 5\nvalue = [2, 3]", fillcolor="#bddef6"] ;
539 -> 541 ;
542 [label="gini = 0.0\nsamples = 1\nvalue = [0, 1]", fillcolor="#399de5"] ;
541 -> 542 ;
543 [label="X[0] <= 60.5\ngini = 0.5\nsamples = 4\nvalue = [2, 2]", fillcolor="#ffffff"] ;
541 -> 543 ;
544 [label="gini = 0.0\nsamples = 1\nvalue = [1, 0]", fillcolor="#e58139"] ;
543 -> 544 ;
545 [label="X[64] <= 0.5\ngini = 0.444\nsamples = 3\nvalue = [1, 2]", fillcolor="#9ccef2"] ;
543 -> 545 ;
546 [label="gini = 0.0\nsamples = 1\nvalue = [0, 1]", fillcolor="#399de5"] ;
545 -> 546 ;
547 [label="gini = 0.5\nsamples = 2\nvalue = [1, 1]", fillcolor="#ffffff"] ;
545 -> 547 ;
548 [label="X[0] <= 16.5\ngini = 0.362\nsamples = 1248\nvalue = [952, 296]", fillcolor="#eda877"] ;
460 -> 548 ;
549 [label="X[2] <= 37.5\ngini = 0.167\nsamples = 87\nvalue = [79, 8]", fillcolor="#e88e4d"] ;
548 -> 549 ;
550 [label="X[0] <= 9.5\ngini = 0.15\nsamples = 86\nvalue = [79, 7]", fillcolor="#e78c4b"] ;
549 -> 550 ;
551 [label="X[0] <= 5.5\ngini = 0.254\nsamples = 47\nvalue = [40, 7]", fillcolor="#ea975c"] ;
550 -> 551 ;
552 [label="X[54] <= 0.5\ngini = 0.064\nsamples = 30\nvalue = [29, 1]", fillcolor="#e68540"] ;
551 -> 552 ;
553 [label="gini = 0.0\nsamples = 28\nvalue = [28, 0]", fillcolor="#e58139"] ;
552 -> 553 ;
554 [label="X[41] <= 0.5\ngini = 0.5\nsamples = 2\nvalue = [1, 1]", fillcolor="#ffffff"] ;
552 -> 554 ;
555 [label="gini = 0.0\nsamples = 1\nvalue = [0, 1]", fillcolor="#399de5"] ;
554 -> 555 ;
556 [label="gini = 0.0\nsamples = 1\nvalue = [1, 0]", fillcolor="#e58139"] ;
554 -> 556 ;
557 [label="X[52] <= 0.5\ngini = 0.457\nsamples = 17\nvalue = [11, 6]", fillcolor="#f3c6a5"] ;
551 -> 557 ;
558 [label="X[42] <= 0.5\ngini = 0.49\nsamples = 7\nvalue = [3, 4]", fillcolor="#cee6f8"] ;
557 -> 558 ;
559 [label="gini = 0.0\nsamples = 2\nvalue = [2, 0]", fillcolor="#e58139"] ;
558 -> 559 ;
560 [label="X[54] <= 0.5\ngini = 0.32\nsamples = 5\nvalue = [1, 4]", fillcolor="#6ab6ec"] ;
558 -> 560 ;
561 [label="gini = 0.0\nsamples = 3\nvalue = [0, 3]", fillcolor="#399de5"] ;
560 -> 561 ;
562 [label="X[1] <= 1.5\ngini = 0.5\nsamples = 2\nvalue = [1, 1]", fillcolor="#ffffff"] ;
560 -> 562 ;
563 [label="gini = 0.0\nsamples = 1\nvalue = [0, 1]", fillcolor="#399de5"] ;
562 -> 563 ;
564 [label="gini = 0.0\nsamples = 1\nvalue = [1, 0]", fillcolor="#e58139"] ;
562 -> 564 ;
565 [label="X[64] <= 0.5\ngini = 0.32\nsamples = 10\nvalue = [8, 2]", fillcolor="#eca06a"] ;
557 -> 565 ;
566 [label="X[1] <= 3.0\ngini = 0.198\nsamples = 9\nvalue = [8, 1]", fillcolor="#e89152"] ;
565 -> 566 ;
567 [label="gini = 0.0\nsamples = 7\nvalue = [7, 0]", fillcolor="#e58139"] ;
566 -> 567 ;
568 [label="X[0] <= 7.5\ngini = 0.5\nsamples = 2\nvalue = [1, 1]", fillcolor="#ffffff"] ;
566 -> 568 ;
569 [label="gini = 0.0\nsamples = 1\nvalue = [1, 0]", fillcolor="#e58139"] ;
568 -> 569 ;
570 [label="gini = 0.0\nsamples = 1\nvalue = [0, 1]", fillcolor="#399de5"] ;
568 -> 570 ;
571 [label="gini = 0.0\nsamples = 1\nvalue = [0, 1]", fillcolor="#399de5"] ;
565 -> 571 ;
572 [label="gini = 0.0\nsamples = 39\nvalue = [39, 0]", fillcolor="#e58139"] ;
550 -> 572 ;
573 [label="gini = 0.0\nsamples = 1\nvalue = [0, 1]", fillcolor="#399de5"] ;
549 -> 573 ;
574 [label="X[56] <= 0.5\ngini = 0.373\nsamples = 1161\nvalue = [873, 288]", fillcolor="#eeab7a"] ;
548 -> 574 ;
575 [label="X[57] <= 0.5\ngini = 0.368\nsamples = 1148\nvalue = [869, 279]", fillcolor="#eda979"] ;
574 -> 575 ;
576 [label="X[1] <= 2.5\ngini = 0.367\nsamples = 1146\nvalue = [869, 277]", fillcolor="#eda978"] ;
575 -> 576 ;
577 [label="X[47] <= 0.5\ngini = 0.354\nsamples = 993\nvalue = [765, 228]", fillcolor="#eda774"] ;
576 -> 577 ;
578 [label="X[1] <= 1.5\ngini = 0.359\nsamples = 958\nvalue = [733, 225]", fillcolor="#eda876"] ;
577 -> 578 ;
579 [label="X[46] <= 0.5\ngini = 0.453\nsamples = 52\nvalue = [34, 18]", fillcolor="#f3c4a2"] ;
578 -> 579 ;
580 [label="X[54] <= 0.5\ngini = 0.435\nsamples = 50\nvalue = [34, 16]", fillcolor="#f1bc96"] ;
579 -> 580 ;
581 [label="gini = 0.255\nsamples = 20\nvalue = [17, 3]", fillcolor="#ea975c"] ;
580 -> 581 ;
582 [label="gini = 0.491\nsamples = 30\nvalue = [17, 13]", fillcolor="#f9e1d0"] ;
580 -> 582 ;
583 [label="gini = 0.0\nsamples = 2\nvalue = [0, 2]", fillcolor="#399de5"] ;
579 -> 583 ;
584 [label="X[0] <= 87.5\ngini = 0.353\nsamples = 906\nvalue = [699, 207]", fillcolor="#eda674"] ;
578 -> 584 ;
585 [label="X[0] <= 74.5\ngini = 0.351\nsamples = 903\nvalue = [698, 205]", fillcolor="#eda673"] ;
584 -> 585 ;
586 [label="gini = 0.356\nsamples = 876\nvalue = [673, 203]", fillcolor="#eda775"] ;
585 -> 586 ;
587 [label="gini = 0.137\nsamples = 27\nvalue = [25, 2]", fillcolor="#e78b49"] ;
585 -> 587 ;
588 [label="X[46] <= 0.5\ngini = 0.444\nsamples = 3\nvalue = [1, 2]", fillcolor="#9ccef2"] ;
584 -> 588 ;
589 [label="gini = 0.0\nsamples = 2\nvalue = [0, 2]", fillcolor="#399de5"] ;
588 -> 589 ;
590 [label="gini = 0.0\nsamples = 1\nvalue = [1, 0]", fillcolor="#e58139"] ;
588 -> 590 ;
591 [label="X[3] <= 2018.0\ngini = 0.157\nsamples = 35\nvalue = [32, 3]", fillcolor="#e78d4c"] ;
577 -> 591 ;
592 [label="X[0] <= 39.0\ngini = 0.111\nsamples = 34\nvalue = [32, 2]", fillcolor="#e78945"] ;
591 -> 592 ;
593 [label="X[0] <= 28.5\ngini = 0.165\nsamples = 22\nvalue = [20, 2]", fillcolor="#e88e4d"] ;
592 -> 593 ;
594 [label="gini = 0.0\nsamples = 10\nvalue = [10, 0]", fillcolor="#e58139"] ;
593 -> 594 ;
595 [label="gini = 0.278\nsamples = 12\nvalue = [10, 2]", fillcolor="#ea9a61"] ;
593 -> 595 ;
596 [label="gini = 0.0\nsamples = 12\nvalue = [12, 0]", fillcolor="#e58139"] ;
592 -> 596 ;
597 [label="gini = 0.0\nsamples = 1\nvalue = [0, 1]", fillcolor="#399de5"] ;
591 -> 597 ;
598 [label="X[0] <= 20.5\ngini = 0.435\nsamples = 153\nvalue = [104, 49]", fillcolor="#f1bc96"] ;
576 -> 598 ;
599 [label="X[42] <= 0.5\ngini = 0.278\nsamples = 6\nvalue = [1, 5]", fillcolor="#61b1ea"] ;
598 -> 599 ;
600 [label="gini = 0.0\nsamples = 3\nvalue = [0, 3]", fillcolor="#399de5"] ;
599 -> 600 ;
601 [label="X[65] <= 0.5\ngini = 0.444\nsamples = 3\nvalue = [1, 2]", fillcolor="#9ccef2"] ;
599 -> 601 ;
602 [label="gini = 0.0\nsamples = 1\nvalue = [1, 0]", fillcolor="#e58139"] ;
601 -> 602 ;
603 [label="gini = 0.0\nsamples = 2\nvalue = [0, 2]", fillcolor="#399de5"] ;
601 -> 603 ;
604 [label="X[41] <= 0.5\ngini = 0.419\nsamples = 147\nvalue = [103, 44]", fillcolor="#f0b78e"] ;
598 -> 604 ;
605 [label="X[52] <= 0.5\ngini = 0.476\nsamples = 69\nvalue = [42, 27]", fillcolor="#f6d2b8"] ;
604 -> 605 ;
606 [label="X[0] <= 35.5\ngini = 0.393\nsamples = 41\nvalue = [30, 11]", fillcolor="#efaf82"] ;
605 -> 606 ;
607 [label="gini = 0.5\nsamples = 14\nvalue = [7, 7]", fillcolor="#ffffff"] ;
606 -> 607 ;
608 [label="gini = 0.252\nsamples = 27\nvalue = [23, 4]", fillcolor="#ea975b"] ;
606 -> 608 ;
609 [label="X[0] <= 33.0\ngini = 0.49\nsamples = 28\nvalue = [12, 16]", fillcolor="#cee6f8"] ;
605 -> 609 ;
610 [label="gini = 0.0\nsamples = 3\nvalue = [3, 0]", fillcolor="#e58139"] ;
609 -> 610 ;
611 [label="gini = 0.461\nsamples = 25\nvalue = [9, 16]", fillcolor="#a8d4f4"] ;
609 -> 611 ;
612 [label="X[54] <= 0.5\ngini = 0.341\nsamples = 78\nvalue = [61, 17]", fillcolor="#eca470"] ;
604 -> 612 ;
613 [label="X[2] <= 32.5\ngini = 0.294\nsamples = 67\nvalue = [55, 12]", fillcolor="#eb9c64"] ;
612 -> 613 ;
614 [label="gini = 0.255\nsamples = 60\nvalue = [51, 9]", fillcolor="#ea975c"] ;
613 -> 614 ;
615 [label="gini = 0.49\nsamples = 7\nvalue = [4, 3]", fillcolor="#f8e0ce"] ;
613 -> 615 ;
616 [label="X[0] <= 25.0\ngini = 0.496\nsamples = 11\nvalue = [6, 5]", fillcolor="#fbeade"] ;
612 -> 616 ;
617 [label="gini = 0.0\nsamples = 2\nvalue = [0, 2]", fillcolor="#399de5"] ;
616 -> 617 ;
618 [label="gini = 0.444\nsamples = 9\nvalue = [6, 3]", fillcolor="#f2c09c"] ;
616 -> 618 ;
619 [label="gini = 0.0\nsamples = 2\nvalue = [0, 2]", fillcolor="#399de5"] ;
575 -> 619 ;
620 [label="X[63] <= 0.5\ngini = 0.426\nsamples = 13\nvalue = [4, 9]", fillcolor="#91c9f1"] ;
574 -> 620 ;
621 [label="X[0] <= 40.5\ngini = 0.298\nsamples = 11\nvalue = [2, 9]", fillcolor="#65b3eb"] ;
620 -> 621 ;
622 [label="X[65] <= 0.5\ngini = 0.48\nsamples = 5\nvalue = [2, 3]", fillcolor="#bddef6"] ;
621 -> 622 ;
623 [label="gini = 0.0\nsamples = 2\nvalue = [0, 2]", fillcolor="#399de5"] ;
622 -> 623 ;
624 [label="X[0] <= 32.0\ngini = 0.444\nsamples = 3\nvalue = [2, 1]", fillcolor="#f2c09c"] ;
622 -> 624 ;
625 [label="gini = 0.0\nsamples = 1\nvalue = [0, 1]", fillcolor="#399de5"] ;
624 -> 625 ;
626 [label="gini = 0.0\nsamples = 2\nvalue = [2, 0]", fillcolor="#e58139"] ;
624 -> 626 ;
627 [label="gini = 0.0\nsamples = 6\nvalue = [0, 6]", fillcolor="#399de5"] ;
621 -> 627 ;
628 [label="gini = 0.0\nsamples = 2\nvalue = [2, 0]", fillcolor="#e58139"] ;
620 -> 628 ;
}